SNNS network definition file V1.4-3D
generated at Tue Dec 10 12:12:23 2013

network name : banknoty
source files :
no. of units : 64
no. of connections : 540
no. of unit types : 0
no. of site types : 0


learning function : Std_Backpropagation
update function   : Topological_Order


unit default section :

act      | bias     | st | subnet | layer | act func     | out func
---------|----------|----|--------|-------|--------------|-------------
 0.00000 |  0.00000 | h  |      0 |     1 | Act_Logistic | Out_Identity 
---------|----------|----|--------|-------|--------------|-------------


unit definition section :

no. | typeName | unitName | act      | bias     | st | position | act func | out func | sites
----|----------|----------|----------|----------|----|----------|----------|----------|-------
  1 |          | noName   |  0.00000 |  0.50444 | i  |  1, 1, 1 |||
  2 |          | noName   |  0.00000 |  0.37230 | i  |  2, 1, 1 |||
  3 |          | noName   |  0.00000 |  0.08689 | i  |  3, 1, 1 |||
  4 |          | noName   |  1.00000 | -0.85223 | i  |  4, 1, 1 |||
  5 |          | noName   |  0.00000 | -0.12656 | i  |  5, 1, 1 |||
  6 |          | noName   |  0.00000 | -0.59612 | i  |  6, 1, 1 |||
  7 |          | noName   |  0.00000 |  0.39244 | i  |  7, 1, 1 |||
  8 |          | noName   |  0.00000 | -0.41929 | i  |  1, 2, 1 |||
  9 |          | noName   |  0.00000 | -0.12662 | i  |  2, 2, 1 |||
 10 |          | noName   |  0.00000 | -0.53514 | i  |  3, 2, 1 |||
 11 |          | noName   |  1.00000 |  0.15574 | i  |  4, 2, 1 |||
 12 |          | noName   |  1.00000 |  0.06516 | i  |  5, 2, 1 |||
 13 |          | noName   |  0.00000 |  0.25736 | i  |  6, 2, 1 |||
 14 |          | noName   |  0.00000 | -0.67962 | i  |  7, 2, 1 |||
 15 |          | noName   |  0.00000 |  0.00827 | i  |  1, 3, 1 |||
 16 |          | noName   |  0.00000 |  0.92608 | i  |  2, 3, 1 |||
 17 |          | noName   |  0.00000 |  0.39152 | i  |  3, 3, 1 |||
 18 |          | noName   |  1.00000 |  0.84960 | i  |  4, 3, 1 |||
 19 |          | noName   |  0.00000 | -0.62011 | i  |  5, 3, 1 |||
 20 |          | noName   |  1.00000 | -0.32810 | i  |  6, 3, 1 |||
 21 |          | noName   |  0.00000 | -0.64330 | i  |  7, 3, 1 |||
 22 |          | noName   |  0.00000 |  0.99036 | i  |  1, 4, 1 |||
 23 |          | noName   |  0.00000 | -0.08512 | i  |  2, 4, 1 |||
 24 |          | noName   |  0.00000 |  0.99603 | i  |  3, 4, 1 |||
 25 |          | noName   |  1.00000 | -0.80499 | i  |  4, 4, 1 |||
 26 |          | noName   |  0.00000 |  0.25034 | i  |  5, 4, 1 |||
 27 |          | noName   |  0.00000 | -0.81121 | i  |  6, 4, 1 |||
 28 |          | noName   |  1.00000 | -0.12455 | i  |  7, 4, 1 |||
 29 |          | noName   |  0.00000 |  0.86303 | i  |  1, 5, 1 |||
 30 |          | noName   |  0.00000 | -0.90313 | i  |  2, 5, 1 |||
 31 |          | noName   |  0.00000 |  0.78924 | i  |  3, 5, 1 |||
 32 |          | noName   |  1.00000 | -0.41997 | i  |  4, 5, 1 |||
 33 |          | noName   |  0.00000 | -0.54540 | i  |  5, 5, 1 |||
 34 |          | noName   |  1.00000 |  0.53813 | i  |  6, 5, 1 |||
 35 |          | noName   |  0.00000 | -0.17856 | i  |  7, 5, 1 |||
 36 |          | noName   |  0.00000 | -0.59606 | i  |  1, 6, 1 |||
 37 |          | noName   |  0.00000 |  0.25614 | i  |  2, 6, 1 |||
 38 |          | noName   |  0.00000 |  0.20829 | i  |  3, 6, 1 |||
 39 |          | noName   |  1.00000 | -0.09677 | i  |  4, 6, 1 |||
 40 |          | noName   |  1.00000 | -0.06729 | i  |  5, 6, 1 |||
 41 |          | noName   |  0.00000 |  0.19565 | i  |  6, 6, 1 |||
 42 |          | noName   |  0.00000 |  0.26945 | i  |  7, 6, 1 |||
 43 |          | noName   |  0.00000 |  0.70959 | i  |  1, 7, 1 |||
 44 |          | noName   |  0.00000 |  0.65758 | i  |  2, 7, 1 |||
 45 |          | noName   |  0.00000 |  0.24955 | i  |  3, 7, 1 |||
 46 |          | noName   |  1.00000 |  0.44182 | i  |  4, 7, 1 |||
 47 |          | noName   |  0.00000 |  0.13150 | i  |  5, 7, 1 |||
 48 |          | noName   |  0.00000 | -0.24973 | i  |  6, 7, 1 |||
 49 |          | noName   |  0.00000 | -0.63146 | i  |  7, 7, 1 |||
 50 |          | noName   |  0.09929 |  0.49210 | h  | 10, 1, 1 |||
 51 |          | noName   |  0.92782 |  1.03896 | h  | 11, 1, 1 |||
 52 |          | noName   |  0.08319 |  0.44720 | h  | 10, 2, 1 |||
 53 |          | noName   |  0.33963 |  0.52283 | h  | 11, 2, 1 |||
 54 |          | noName   |  0.68704 |  0.71269 | h  | 10, 3, 1 |||
 55 |          | noName   |  0.03983 |  0.65325 | h  | 11, 3, 1 |||
 56 |          | noName   |  0.93681 |  0.41502 | h  | 10, 4, 1 |||
 57 |          | noName   |  0.02831 | -0.89818 | h  | 11, 4, 1 |||
 58 |          | noName   |  0.58575 | -0.29448 | h  | 10, 5, 1 |||
 59 |          | noName   |  0.27126 | -0.65039 | h  | 11, 5, 1 |||
 60 |          | noName   |  0.00000 |  0.12369 | o  | 14, 1, 1 |||
 61 |          | noName   |  0.00000 | -1.71326 | o  | 14, 2, 1 |||
 62 |          | noName   |  0.00000 | -0.30571 | o  | 14, 3, 1 |||
 63 |          | noName   |  0.00000 | -1.14023 | o  | 14, 4, 1 |||
 64 |          | noName   |  1.00000 | -0.60394 | o  | 14, 5, 1 |||
----|----------|----------|----------|----------|----|----------|----------|----------|-------


connection definition section :

target | site | source:weight
-------|------|---------------------------------------------------------------------------------------------------------------------
    50 |      | 49: 0.12655, 48: 0.82646, 47:-0.49798, 46:-0.60583, 45: 0.22574, 44: 0.41330, 43: 0.18551, 42:-0.28112, 41:-0.01108,
                40:-0.83923, 39: 0.48149, 38: 0.22410, 37: 0.24076, 36: 0.39853, 35: 0.62535, 34:-0.70177, 33: 0.15207, 32: 0.73547,
                31: 0.82311, 30: 0.22941, 29: 0.47165, 28:-0.89728, 27: 0.33555, 26: 0.95306, 25:-0.36998, 24: 0.13840, 23:-0.38835,
                22:-0.63586, 21:-0.76660, 20: 0.73809, 19: 0.70244, 18: 0.48863, 17:-0.69024, 16:-0.34617, 15:-0.82502, 14:-0.83051,
                13: 0.28196, 12: 0.64000, 11: 0.09018, 10:-0.10349,  9:-0.18204,  8:-0.38622,  7:-0.05259,  6: 0.01870,  5:-0.67841,
                 4:-0.33764,  3: 0.49229,  2:-0.35595,  1: 0.66966
    51 |      | 49: 0.86750, 48: 0.57086, 47:-0.27908, 46: 1.00880, 45:-0.62473, 44:-0.74772, 43: 0.69074, 42: 0.16997, 41: 0.21928,
                40: 0.91223, 39:-0.85546, 38: 0.75127, 37: 0.30772, 36:-0.23495, 35:-0.66959, 34: 0.01010, 33:-0.54582, 32:-0.41942,
                31: 0.83996, 30: 0.10233, 29: 0.44641, 28:-0.65012, 27:-0.01492, 26:-0.24174, 25:-0.00638, 24: 0.58672, 23: 0.01852,
                22:-0.11446, 21: 0.49713, 20: 0.06430, 19: 0.21256, 18:-0.20963, 17:-0.98822, 16: 0.41575, 15:-0.67795, 14: 0.36694,
                13: 0.72649, 12:-0.01700, 11: 0.49467, 10:-0.00620,  9:-0.23978,  8: 0.69153,  7: 0.22643,  6:-0.16500,  5: 1.03224,
                 4: 0.38250,  3:-0.52603,  2:-0.13070,  1:-0.61594
    52 |      | 49: 0.86408, 48: 0.18461, 47:-0.98369, 46:-0.37967, 45:-0.92754, 44: 0.23906, 43:-0.77611, 42: 0.65478, 41: 0.72863,
                40: 0.19376, 39: 0.44328, 38: 0.70794, 37:-0.97064, 36:-0.78642, 35: 0.37645, 34: 0.23429, 33:-0.56487, 32:-0.86810,
                31:-0.66216, 30: 0.24821, 29:-0.35739, 28:-0.40055, 27:-0.26487, 26: 0.32200, 25: 0.60479, 24: 0.61376, 23: 0.05307,
                22: 0.18284, 21: 0.55700, 20: 0.80120, 19:-0.71038, 18: 0.26035, 17:-0.19517, 16:-0.49260, 15:-0.76628, 14: 0.67102,
                13:-0.86767, 12:-0.14438, 11: 0.14670, 10:-0.39543,  9: 0.09610,  8:-0.58824,  7:-0.41666,  6:-0.81810,  5: 0.57672,
                 4:-0.76994,  3:-0.47086,  2: 0.53686,  1: 0.75110
    53 |      | 49: 0.43115, 48: 0.17401, 47:-0.33419, 46: 0.65687, 45:-0.59946, 44: 0.67073, 43:-0.59756, 42:-0.55734, 41: 0.08481,
                40: 0.96966, 39:-0.89239, 38:-0.83715, 37: 0.04935, 36:-0.20284, 35:-0.86710, 34:-0.48241, 33: 0.78307, 32:-0.53447,
                31:-0.70690, 30:-0.74981, 29: 0.80684, 28:-0.89622, 27:-0.90582, 26:-0.88256, 25:-0.32719, 24: 0.82940, 23:-0.20280,
                22:-0.19087, 21: 0.83589, 20: 0.67437, 19: 0.06845, 18: 0.68419, 17: 0.38707, 16:-0.20463, 15:-0.53811, 14:-1.04777,
                13: 0.05118, 12: 0.90960, 11:-0.20261, 10:-0.51781,  9: 0.17112,  8:-0.54617,  7: 0.31158,  6: 0.83412,  5:-0.18544,
                 4: 0.72401,  3:-1.04210,  2: 0.82552,  1: 0.14666
    54 |      | 49: 0.29373, 48:-0.57476, 47:-0.41497, 46:-0.09361, 45:-0.85108, 44:-0.02378, 43:-0.69513, 42: 0.46024, 41: 0.71020,
                40:-0.87030, 39: 0.62212, 38: 0.32414, 37: 0.38298, 36: 0.74577, 35: 0.20065, 34: 0.37126, 33:-0.71447, 32: 0.37901,
                31: 0.45579, 30: 0.55547, 29:-0.79749, 28: 0.87774, 27: 0.28904, 26: 0.41313, 25:-0.82910, 24: 0.10398, 23: 0.89581,
                22:-0.74206, 21:-0.30968, 20:-0.70965, 19: 0.96356, 18: 0.23997, 17:-0.41551, 16: 0.84497, 15:-0.12455, 14: 0.52946,
                13:-0.56273, 12:-0.68816, 11:-0.51891, 10: 0.04288,  9: 0.80456,  8:-0.64679,  7: 0.94567,  6: 0.02383,  5:-0.69940,
                 4: 0.70457,  3:-0.51604,  2: 1.08917,  1: 0.69212
    55 |      | 49:-0.66625, 48:-0.17429, 47:-1.08002, 46: 0.41374, 45:-0.85943, 44:-0.27811, 43:-0.46525, 42: 0.89770, 41:-0.92285,
                40:-0.49583, 39:-0.62145, 38:-0.50462, 37:-0.69298, 36: 0.15311, 35: 0.68322, 34: 0.87817, 33:-0.60869, 32: 0.55931,
                31: 0.29112, 30: 0.31352, 29: 0.73077, 28:-0.17661, 27: 0.84259, 26: 0.32835, 25:-0.69848, 24: 0.27268, 23: 0.13907,
                22:-0.24345, 21: 0.79852, 20: 0.08115, 19: 0.15714, 18: 0.07291, 17:-0.48943, 16:-0.20609, 15:-0.38700, 14:-1.01428,
                13: 0.59050, 12:-0.60698, 11:-0.85943, 10:-0.22117,  9: 0.18149,  8:-0.94568,  7:-0.69219,  6:-0.77575,  5: 0.20115,
                 4:-0.17887,  3: 0.12107,  2: 0.30717,  1:-0.20493
    56 |      | 49:-0.16086, 48: 0.71752, 47: 0.23051, 46:-0.55473, 45: 0.94501, 44: 0.79809, 43:-0.17050, 42: 1.02100, 41:-0.62938,
                40: 0.79144, 39: 0.14890, 38:-0.11588, 37: 0.25468, 36: 0.46312, 35:-0.85467, 34:-0.42888, 33:-0.47960, 32:-0.18473,
                31: 0.79064, 30: 0.42039, 29: 0.50298, 28: 0.83819, 27:-0.21287, 26:-0.20518, 25: 0.80773, 24:-0.38279, 23:-0.22379,
                22: 0.18723, 21:-0.24680, 20: 0.46739, 19: 0.49071, 18: 0.47276, 17: 0.47887, 16:-0.72137, 15:-0.55357, 14:-0.40873,
                13: 0.36088, 12: 0.82226, 11:-0.26432, 10: 0.03531,  9:-0.78124,  8: 0.86096,  7:-0.54777,  6: 0.08201,  5: 0.35576,
                 4:-0.07687,  3: 0.42137,  2:-0.77306,  1:-0.79479
    57 |      | 49:-0.99413, 48:-0.33957, 47:-0.43528, 46: 0.34484, 45:-0.76439, 44:-0.26004, 43:-0.91405, 42: 0.30174, 41: 0.44987,
                40:-0.60259, 39: 0.38804, 38: 0.23142, 37: 0.30979, 36: 0.03825, 35:-0.85314, 34: 0.09073, 33:-0.90075, 32: 0.94916,
                31:-0.07193, 30: 0.93994, 29: 0.40600, 28: 0.01218, 27: 0.35984, 26: 0.38560, 25:-0.25578, 24:-0.22275, 23:-0.90008,
                22: 0.56982, 21:-0.71062, 20:-0.87835, 19:-0.37889, 18: 0.56896, 17:-0.57506, 16:-0.35618, 15:-0.08041, 14:-1.03143,
                13:-0.12027, 12: 0.01572, 11: 0.21189, 10: 0.51708,  9:-0.19785,  8:-0.35013,  7: 0.63556,  6: 0.83490,  5: 0.19688,
                 4: 0.94483,  3:-0.94280,  2: 0.07597,  1: 0.67737
    58 |      | 49:-0.45519, 48:-0.49956, 47:-1.01459, 46: 0.15713, 45:-0.28563, 44:-1.03077, 43:-1.00593, 42:-0.15660, 41: 0.71587,
                40: 0.87353, 39:-0.19620, 38: 0.45457, 37: 0.22318, 36: 0.54875, 35: 0.68284, 34: 0.16520, 33: 0.19004, 32:-0.84198,
                31: 0.58635, 30:-0.07559, 29: 0.11325, 28: 0.11087, 27: 0.13840, 26: 0.63213, 25: 0.34550, 24:-0.31285, 23:-0.97955,
                22:-0.53338, 21:-0.38488, 20:-0.53581, 19: 0.54204, 18:-0.25651, 17: 0.73974, 16:-0.76629, 15: 0.38315, 14: 0.18985,
                13: 0.78790, 12:-0.63396, 11: 0.07114, 10: 0.80401,  9: 0.56017,  8: 0.86242,  7:-0.67328,  6: 0.73509,  5: 0.52683,
                 4: 0.83879,  3: 0.62962,  2: 0.71269,  1: 0.18942
    59 |      | 49: 0.21255, 48:-0.49133, 47:-0.52001, 46: 0.44309, 45: 0.55491, 44:-0.67944, 43: 0.40647, 42:-0.05943, 41:-0.83703,
                40: 0.61309, 39: 0.71068, 38:-0.75072, 37:-0.38505, 36: 0.12533, 35:-0.07536, 34: 0.52409, 33:-0.61626, 32: 0.45555,
                31: 0.99005, 30:-0.96930, 29: 0.27396, 28: 0.36197, 27:-0.65172, 26:-0.85577, 25:-0.45006, 24: 0.35325, 23: 0.67785,
                22: 0.09201, 21:-0.27886, 20: 0.55901, 19:-0.53496, 18: 0.27647, 17:-0.53667, 16:-0.59081, 15: 0.92077, 14:-0.45782,
                13:-0.95422, 12: 0.53844, 11:-0.69634, 10:-0.90606,  9:-0.98151,  8:-0.32414,  7: 0.26645,  6:-0.33483,  5:-0.19218,
                 4:-0.18828,  3:-0.83997,  2: 0.06906,  1: 0.37723
    60 |      | 59: 0.43764, 58: 1.05525, 57: 0.09318, 56: 0.52792, 55:-0.84758, 54: 0.03614, 53:-0.28337, 52:-0.09154, 51: 1.03905,
                50: 0.01083
    61 |      | 59:-0.10908, 58:-0.18101, 57: 0.51362, 56:-0.03983, 55: 0.61670, 54:-0.61821, 53: 0.34421, 52: 0.18224, 51:-0.12783,
                50: 0.58263
    62 |      | 59: 0.51642, 58: 0.24452, 57: 0.78324, 56:-0.67572, 55:-0.20158, 54:-0.95428, 53:-0.65825, 52: 0.54271, 51:-0.71693,
                50:-0.72969
    63 |      | 59: 0.27488, 58: 0.44760, 57:-0.88009, 56:-0.94204, 55:-0.24416, 54: 0.34018, 53: 0.55049, 52:-0.71018, 51:-0.80809,
                50:-0.91468
    64 |      | 59:-1.04387, 58: 0.75667, 57: 0.28061, 56:-1.14936, 55: 0.79911, 54: 0.20547, 53:-0.26637, 52:-0.99410, 51:-0.72177,
                50:-0.24102
-------|------|---------------------------------------------------------------------------------------------------------------------


layer definition section :

layer | unitNo.
------|----------------------------------------------------------------------------------------------------------------------------
    2 | 50, 51, 52, 53, 54, 55, 56, 57, 58, 59
    3 | 60, 61, 62, 63, 64
------|----------------------------------------------------------------------------------------------------------------------------
